1.4625211	-1.8374605
1.7381424	-1.5590904
1.6065625	-1.6871855
1.8174967	-1.4725988
1.7392855	-1.5471326
1.6137007	-1.6706142
1.6542745	-1.6285328
1.6297083	-1.6517193
1.6390924	-1.6409743
1.640794	-1.6379095
1.6403115	-1.6370194
1.6395276	-1.6364186
1.6387211	-1.6358287
1.6379263	-1.6352147
1.6371423	-1.6345776
1.6363646	-1.6339215
1.6355897	-1.6332495
1.6348149	-1.6325637
1.63404	-1.6318657
1.6332628	-1.6311562
1.6324823	-1.6304361
1.631698	-1.6297058
1.6309093	-1.6289656
1.6301155	-1.6282158
1.6293163	-1.6274569
1.6285113	-1.6266886
1.6277001	-1.6259111
1.6268823	-1.6251245
1.6260577	-1.6243286
1.625226	-1.6235235
1.624387	-1.6227093
1.6235402	-1.6218855
1.6226854	-1.6210523
1.6218228	-1.6202095
1.6209517	-1.6193571
1.6200719	-1.6184949
1.6191834	-1.6176227
1.6182858	-1.6167405
1.6173788	-1.615848
1.6164622	-1.6149448
1.6155359	-1.6140312
1.6145995	-1.6131067
1.6136527	-1.6121712
1.6126953	-1.6112244
1.6117272	-1.610266
1.6107478	-1.6092961
1.6097572	-1.6083139
1.6087546	-1.6073196
1.6077402	-1.6063128
1.6067135	-1.6052932
1.6056744	-1.6042603
1.6046221	-1.603214
1.6035566	-1.6021541
1.6024776	-1.6010801
1.6013844	-1.5999917
1.6002768	-1.5988885
1.5991545	-1.5977701
1.598017	-1.5966364
1.5968642	-1.5954868
1.5956954	-1.5943205
1.5945098	-1.5931375
1.5933074	-1.5919373
1.5920876	-1.5907193
1.5908499	-1.5894831
1.5895936	-1.5882281
1.5883185	-1.5869538
1.5870236	-1.5856595
1.5857087	-1.5843447
1.5843729	-1.5830089
1.5830157	-1.5816512
1.5816362	-1.5802711
1.580234	-1.578868
1.5788083	-1.577441
1.5773581	-1.5759889
1.5758828	-1.5745113
1.5743811	-1.5730071
1.5728525	-1.5714756
1.5712959	-1.5699157
1.5697104	-1.5683265
1.5680947	-1.5667068
1.5664481	-1.5650557
1.5647688	-1.5633718
1.563056	-1.5616537
1.5613083	-1.5599004
1.5595239	-1.5581102
1.5577018	-1.5562818
1.5558401	-1.5544134
1.5539371	-1.5525033
1.5519915	-1.55055
1.550001	-1.5485508
1.5479637	-1.546504
1.545877	-1.5444083
1.5437387	-1.5422604
1.5415463	-1.540058
1.5392975	-1.5377983
1.5369891	-1.5354785
1.5346181	-1.5330952
1.532181	-1.5306454
1.529674	-1.528125
1.5270938	-1.5255303
1.5244356	-1.5228568
1.5216947	-1.5200999
1.5188663	-1.5172545
1.5159453	-1.5143147
1.5129246	-1.5112746
1.509798	-1.5081277
1.5065584	-1.504866
1.5031972	-1.5014818
1.4997056	-1.4979657
1.4960732	-1.4943076
1.4922899	-1.4904962
1.488342	-1.4865184
1.4842162	-1.4823599
1.4798961	-1.478005
1.475363	-1.4734349
1.4705967	-1.4686285
1.4655731	-1.463561
1.4602641	-1.4582046
1.4546375	-1.4525265
1.4486556	-1.4464879
1.4422727	-1.4400429
1.4354349	-1.4331365
1.4280777	-1.4257027
1.4201206	-1.4176602
1.411465	-1.4089081
1.4019867	-1.3993205
1.3915261	-1.3887345
1.3798748	-1.376938
1.3667551	-1.3636479
1.3517854	-1.3484757
1.3344244	-1.3308687
1.3138748	-1.3100141
1.288908	-1.2846603
1.2575272	-1.2527769
1.2163054	-1.2109003
1.1592677	-1.1530976
1.0789384	-1.0726843
0.99832046	-0.9963054
0.9953714	-0.9962977
1.0026629	-1.0024512
0.9994887	-0.9994595
0.99989814	-0.99993503
1.0001061	-1.000094
0.9999677	-0.9999684
1.0000007	-1.0000019
1.0000037	-1.000003
0.9999984	-0.9999985
1.0000002	-1.0000001
1.0000002	-1.0000001
1.0000002	-1.0000001
1.0000002	-1.0000001
1.0000002	-1.0000001
1.0000002	-1.0000001
1.0000002	-1.0000001
1.0000002	-1.0000001
1.0000002	-1.0000001
1.0000002	-1.0000001
1.0000002	-1.0000001
1.0000002	-1.0000001
1.0000002	-1.0000001
1.0000002	-1.0000001
1.0000002	-1.0000001
1.0000002	-1.0000001
1.0000002	-1.0000001
1.0000002	-1.0000001
1.0000002	-1.0000001
1.0000002	-1.0000001
1.0000002	-1.0000001
1.0000002	-1.0000001
1.0000002	-1.0000001
1.0000002	-1.0000001
1.0000002	-1.0000001
1.0000002	-1.0000001
1.0000002	-1.0000001
1.0000002	-1.0000001
1.0000002	-1.0000001
1.0000002	-1.0000001
1.0000002	-1.0000001
1.0000002	-1.0000001
1.0000002	-1.0000001
1.0000002	-1.0000001
1.0000002	-1.0000001
1.0000002	-1.0000001
1.0000002	-1.0000001
1.0000002	-1.0000001
1.0000002	-1.0000001
1.0000002	-1.0000001
1.0000002	-1.0000001
1.0000002	-1.0000001
1.0000002	-1.0000001
1.0000002	-1.0000001
1.0000002	-1.0000001
1.0000002	-1.0000001
1.0000002	-1.0000001
1.0000002	-1.0000001
1.0000002	-1.0000001
1.0000002	-1.0000001
1.0000002	-1.0000001
1.0000002	-1.0000001
1.0000002	-1.0000001
1.0000002	-1.0000001
1.0000002	-1.0000001
1.0000002	-1.0000001
1.0000002	-1.0000001
1.0000002	-1.0000001
1.0000002	-1.0000001
1.0000002	-1.0000001
1.0000002	-1.0000001
1.0000002	-1.0000001
1.0000002	-1.0000001
1.0000002	-1.0000001
1.0000002	-1.0000001
1.0000002	-1.0000001
1.0000002	-1.0000001
1.0000002	-1.0000001
1.0000002	-1.0000001
1.0000002	-1.0000001
1.0000002	-1.0000001
1.0000002	-1.0000001
1.0000002	-1.0000001
1.0000002	-1.0000001
1.0000002	-1.0000001
1.0000002	-1.0000001
1.0000002	-1.0000001
1.0000002	-1.0000001
1.0000002	-1.0000001
1.0000002	-1.0000001
1.0000002	-1.0000001
1.0000002	-1.0000001
1.0000002	-1.0000001
1.0000002	-1.0000001
1.0000002	-1.0000001
1.0000002	-1.0000001
1.0000002	-1.0000001
1.0000002	-1.0000001
1.0000002	-1.0000001
1.0000002	-1.0000001
1.0000002	-1.0000001
1.0000002	-1.0000001
1.0000002	-1.0000001
1.0000002	-1.0000001
1.0000002	-1.0000001
1.0000002	-1.0000001
1.0000002	-1.0000001
1.0000002	-1.0000001
1.0000002	-1.0000001
1.0000002	-1.0000001
1.0000002	-1.0000001
1.0000002	-1.0000001
1.0000002	-1.0000001
1.0000002	-1.0000001
1.0000002	-1.0000001
1.0000002	-1.0000001
1.0000002	-1.0000001
1.0000002	-1.0000001
1.0000002	-1.0000001
1.0000002	-1.0000001
1.0000002	-1.0000001
1.0000002	-1.0000001
1.0000002	-1.0000001
1.0000002	-1.0000001
1.0000002	-1.0000001
1.0000002	-1.0000001
1.0000002	-1.0000001
1.0000002	-1.0000001
1.0000002	-1.0000001
1.0000002	-1.0000001
1.0000002	-1.0000001
1.0000002	-1.0000001
1.0000002	-1.0000001
1.0000002	-1.0000001
1.0000002	-1.0000001
1.0000002	-1.0000001
1.0000002	-1.0000001
1.0000002	-1.0000001
1.0000002	-1.0000001
1.0000002	-1.0000001
1.0000002	-1.0000001
1.0000002	-1.0000001
1.0000002	-1.0000001
1.0000002	-1.0000001
1.0000002	-1.0000001
1.0000002	-1.0000001
1.0000002	-1.0000001
1.0000002	-1.0000001
1.0000002	-1.0000001
1.0000002	-1.0000001
1.0000002	-1.0000001
1.0000002	-1.0000001
1.0000002	-1.0000001
1.0000002	-1.0000001
1.0000002	-1.0000001
1.0000002	-1.0000001
1.0000002	-1.0000001
1.0000002	-1.0000001
1.0000002	-1.0000001
1.0000002	-1.0000001
1.0000002	-1.0000001
1.0000002	-1.0000001
1.0000002	-1.0000001
1.0000002	-1.0000001
1.0000002	-1.0000001
1.0000002	-1.0000001
1.0000002	-1.0000001
1.0000002	-1.0000001
1.0000002	-1.0000001
1.0000002	-1.0000001
1.0000002	-1.0000001
1.0000002	-1.0000001
1.0000002	-1.0000001
1.0000002	-1.0000001
1.0000002	-1.0000001
1.0000002	-1.0000001
1.0000002	-1.0000001
1.0000002	-1.0000001
1.0000002	-1.0000001
1.0000002	-1.0000001
1.0000002	-1.0000001
1.0000002	-1.0000001
1.0000002	-1.0000001
1.0000002	-1.0000001
1.0000002	-1.0000001
1.0000002	-1.0000001
1.0000002	-1.0000001
1.0000002	-1.0000001
1.0000002	-1.0000001
1.0000002	-1.0000001
1.0000002	-1.0000001
1.0000002	-1.0000001
1.0000002	-1.0000001
1.0000002	-1.0000001
1.0000002	-1.0000001
1.0000002	-1.0000001
1.0000002	-1.0000001
1.0000002	-1.0000001
1.0000002	-1.0000001
1.0000002	-1.0000001
1.0000002	-1.0000001
1.0000002	-1.0000001
1.0000002	-1.0000001
1.0000002	-1.0000001
1.0000002	-1.0000001
1.0000002	-1.0000001
1.0000002	-1.0000001
1.0000002	-1.0000001
1.0000002	-1.0000001
1.0000002	-1.0000001
1.0000002	-1.0000001
1.0000002	-1.0000001
1.0000002	-1.0000001
1.0000002	-1.0000001
1.0000002	-1.0000001
1.0000002	-1.0000001
1.0000002	-1.0000001
1.0000002	-1.0000001
1.0000002	-1.0000001
1.0000002	-1.0000001
1.0000002	-1.0000001
1.0000002	-1.0000001
1.0000002	-1.0000001
1.0000002	-1.0000001
1.0000002	-1.0000001
1.0000002	-1.0000001
1.0000002	-1.0000001
1.0000002	-1.0000001
1.0000002	-1.0000001
1.0000002	-1.0000001
1.0000002	-1.0000001
1.0000002	-1.0000001
1.0000002	-1.0000001
1.0000002	-1.0000001
1.0000002	-1.0000001
1.0000002	-1.0000001
1.0000002	-1.0000001
1.0000002	-1.0000001
1.0000002	-1.0000001
1.0000002	-1.0000001
1.0000002	-1.0000001
1.0000002	-1.0000001
1.0000002	-1.0000001
1.0000002	-1.0000001
1.0000002	-1.0000001
1.0000002	-1.0000001
1.0000002	-1.0000001
1.0000002	-1.0000001
1.0000002	-1.0000001
1.0000002	-1.0000001
1.0000002	-1.0000001
1.0000002	-1.0000001
1.0000002	-1.0000001
1.0000002	-1.0000001
1.0000002	-1.0000001
1.0000002	-1.0000001
1.0000002	-1.0000001
1.0000002	-1.0000001
1.0000002	-1.0000001
1.0000002	-1.0000001
1.0000002	-1.0000001
1.0000002	-1.0000001
1.0000002	-1.0000001
1.0000002	-1.0000001
1.0000002	-1.0000001
1.0000002	-1.0000001
1.0000002	-1.0000001
1.0000002	-1.0000001
1.0000002	-1.0000001
1.0000002	-1.0000001
1.0000002	-1.0000001
1.0000002	-1.0000001
1.0000002	-1.0000001
1.0000002	-1.0000001
1.0000002	-1.0000001
1.0000002	-1.0000001
1.0000002	-1.0000001
1.0000002	-1.0000001
1.0000002	-1.0000001
1.0000002	-1.0000001
1.0000002	-1.0000001
1.0000002	-1.0000001
1.0000002	-1.0000001
1.0000002	-1.0000001
1.0000002	-1.0000001
1.0000002	-1.0000001
1.0000002	-1.0000001
1.0000002	-1.0000001
1.0000002	-1.0000001
1.0000002	-1.0000001
1.0000002	-1.0000001
1.0000002	-1.0000001
1.0000002	-1.0000001
1.0000002	-1.0000001
1.0000002	-1.0000001
1.0000002	-1.0000001
1.0000002	-1.0000001
1.0000002	-1.0000001
1.0000002	-1.0000001
1.0000002	-1.0000001
1.0000002	-1.0000001
1.0000002	-1.0000001
1.0000002	-1.0000001
1.0000002	-1.0000001
1.0000002	-1.0000001
1.0000002	-1.0000001
1.0000002	-1.0000001
1.0000002	-1.0000001
1.0000002	-1.0000001
1.0000002	-1.0000001
1.0000002	-1.0000001
1.0000002	-1.0000001
1.0000002	-1.0000001
1.0000002	-1.0000001
1.0000002	-1.0000001
1.0000002	-1.0000001
1.0000002	-1.0000001
1.0000002	-1.0000001
1.0000002	-1.0000001
1.0000002	-1.0000001
1.0000002	-1.0000001
1.0000002	-1.0000001
1.0000002	-1.0000001
1.0000002	-1.0000001
1.0000002	-1.0000001
1.0000002	-1.0000001
1.0000002	-1.0000001
1.0000002	-1.0000001
1.0000002	-1.0000001
1.0000002	-1.0000001
1.0000002	-1.0000001
1.0000002	-1.0000001
1.0000002	-1.0000001
1.0000002	-1.0000001
1.0000002	-1.0000001
1.0000002	-1.0000001
1.0000002	-1.0000001
1.0000002	-1.0000001
1.0000002	-1.0000001
1.0000002	-1.0000001
1.0000002	-1.0000001
1.0000002	-1.0000001
1.0000002	-1.0000001
1.0000002	-1.0000001
1.0000002	-1.0000001
1.0000002	-1.0000001
1.0000002	-1.0000001
1.0000002	-1.0000001
1.0000002	-1.0000001
1.0000002	-1.0000001
1.0000002	-1.0000001
1.0000002	-1.0000001
1.0000002	-1.0000001
1.0000002	-1.0000001
1.0000002	-1.0000001
1.0000002	-1.0000001
1.0000002	-1.0000001
1.0000002	-1.0000001
1.0000002	-1.0000001
1.0000002	-1.0000001
1.0000002	-1.0000001
1.0000002	-1.0000001
1.0000002	-1.0000001
