0	0.0016024003271013498
2	0.0037253713235259056
4	0.005742945708334446
6	0.0076594166457653046
8	0.009478901512920856
10	0.011205350048840046
12	0.012842552736401558
14	0.014394143596291542
16	0.015863610431551933
18	0.0172542966902256
20	0.01856941543519497
22	0.019812041893601418
24	0.020985130220651627
26	0.022091513499617577
28	0.023133911192417145
30	0.024114927276968956
32	0.025037065148353577
34	0.025902723893523216
36	0.026714203879237175
38	0.02747371420264244
40	0.02818337269127369
42	0.028845209628343582
44	0.029461177065968513
46	0.030033143237233162
48	0.030562901869416237
50	0.031052174046635628
52	0.031502608209848404
54	0.03191579505801201
56	0.03229324892163277
58	0.03263642638921738
60	0.03294672444462776
62	0.03322548419237137
64	0.033473994582891464
66	0.03369349241256714
68	0.033885154873132706
70	0.034050121903419495
72	0.034189481288194656
74	0.03430427983403206
76	0.03439551964402199
78	0.03446415811777115
80	0.03451112285256386
82	0.03453729674220085
84	0.03454353287816048
86	0.0345306396484375
88	0.034499406814575195
90	0.03445057570934296
92	0.034384872764348984
94	0.034302983433008194
96	0.034205567091703415
98	0.034093260765075684
100	0.03396667540073395
102	0.033826395869255066
104	0.03367297723889351
106	0.03350696340203285
108	0.033328864723443985
110	0.0331391766667366
112	0.03293837606906891
114	0.032726917415857315
116	0.03250524029135704
118	0.032273758202791214
120	0.03203287720680237
122	0.031782981008291245
124	0.03152443841099739
126	0.03125760704278946
128	0.03098282590508461
130	0.030700422823429108
132	0.030410708859562874
134	0.030113983899354935
136	0.02981053851544857
138	0.029500648379325867
140	0.029184579849243164
142	0.028862586244940758
144	0.028534911572933197
146	0.028201792389154434
148	0.027863450348377228
150	0.02752010151743889
152	0.02717195264995098
154	0.026819203048944473
156	0.026462040841579437
158	0.026100650429725647
160	0.02573520690202713
162	0.025365877896547318
164	0.024992825463414192
166	0.02461620420217514
168	0.024236159399151802
170	0.023852836340665817
172	0.02346636913716793
174	0.023076891899108887
176	0.022684527561068535
178	0.022289397194981575
180	0.02189161814749241
182	0.02149129845201969
184	0.02108854614198208
186	0.02068346180021763
188	0.02027614414691925
190	0.019866688176989555
192	0.019455183297395706
194	0.01904171332716942
196	0.018626363947987556
198	0.018209215253591537
200	0.01779034174978733
202	0.017369817942380905
204	0.016947712749242783
206	0.016524093225598335
208	0.016099026426672935
210	0.01567257009446621
212	0.015244787558913231
214	0.014815733768045902
216	0.014385463669896126
218	0.013954030349850655
220	0.013521483168005943
222	0.013087871484458447
224	0.012653241865336895
226	0.012217638082802296
228	0.011781102046370506
230	0.01134367473423481
232	0.010905396193265915
234	0.01046630460768938
236	0.010026434436440468
238	0.009585821069777012
240	0.009144498966634274
242	0.00870249792933464
244	0.00825984962284565
246	0.007816582918167114
248	0.007372725754976273
250	0.006928305607289076
252	0.006483348086476326
254	0.00603787787258625
256	0.005591919180005789
258	0.005145493894815445
260	0.004698625300079584
262	0.004251333884894848
264	0.0038036401383578777
266	0.0033555629197508097
268	0.0029071210883557796
270	0.002458332572132349
272	0.002009214600548148
274	0.0015597830060869455
276	0.0011100537376478314
278	0.0006600411143153906
280	0.0002097605320159346
282	-0.00024077415582723916
284	-0.0006915500271134079
286	-0.0011425536358729005
288	-0.001593773253262043
290	-0.002045196946710348
292	-0.0024968134239315987
294	-0.002948612440377474
296	-0.003400583053007722
298	-0.0038527159485965967
300	-0.004305001348257065
302	-0.00475742993876338
304	-0.00520999263972044
306	-0.005662681069225073
308	-0.006115486845374107
310	-0.006568402983248234
312	-0.007021422032266855
314	-0.0074745360761880875
316	-0.00792773813009262
318	-0.008381023071706295
320	-0.008834383450448513
322	-0.009287814609706402
324	-0.009741309098899364
326	-0.010194862261414528
328	-0.010648468509316444
330	-0.011102123185992241
332	-0.01155582070350647
334	-0.012009556405246258
336	-0.012463325634598732
338	-0.012917124666273594
340	-0.01337094884365797
342	-0.013824794441461563
344	-0.014278657734394073
346	-0.014732534997165203
348	-0.015186423435807228
350	-0.015640318393707275
352	-0.01609421707689762
354	-0.016548117622733116
356	-0.017002014443278313
358	-0.01745590567588806
360	-0.017909789457917213
362	-0.01836366392672062
364	-0.01881752349436283
366	-0.01927136816084385
368	-0.019725196063518524
370	-0.02017900161445141
372	-0.0206327885389328
374	-0.021086549386382103
376	-0.021540284156799316
378	-0.02199399098753929
380	-0.02244766801595688
382	-0.022901315242052078
384	-0.023354927077889442
386	-0.02380850538611412
388	-0.024262046441435814
390	-0.024715550243854523
392	-0.02516901306807995
394	-0.02562243677675724
396	-0.02607581950724125
398	-0.026529157534241676
400	-0.026982450857758522
402	-0.027435699477791786
404	-0.02788890339434147
406	-0.02834205888211727
408	-0.028795165941119194
410	-0.029248222708702087
412	-0.0297012310475111
414	-0.030154187232255936
416	-0.030607091262936592
418	-0.03105994313955307
420	-0.03151274099946022
422	-0.031965482980012894
424	-0.03241817280650139
426	-0.03287080302834511
428	-0.03332338109612465
430	-0.033775899559259415
432	-0.034228358417749405
434	-0.03468076512217522
436	-0.03513311222195625
438	-0.035585399717092514
440	-0.036037627607584
442	-0.03648979216814041
444	-0.03694189339876175
446	-0.03739393502473831
448	-0.0378459170460701
450	-0.03829783573746681
452	-0.03874969109892845
454	-0.039201486855745316
456	-0.03965321555733681
458	-0.040104880928993225
460	-0.04055648297071457
462	-0.04100802168250084
464	-0.041459497064352036
466	-0.04191090539097786
468	-0.04236224666237831
470	-0.04281352460384369
472	-0.04326473921537399
474	-0.043715886771678925
476	-0.044166967272758484
478	-0.04461798071861267
480	-0.045068927109241486
482	-0.045519810169935226
484	-0.045970626175403595
486	-0.04642137512564659
488	-0.046872057020664215
490	-0.04732266813516617
492	-0.04777321219444275
494	-0.04822368919849396
496	-0.048674099147319794
498	-0.04912443831562996
500	-0.04957471042871475
502	-0.05002491548657417
504	-0.05047504976391792
506	-0.0509251169860363
508	-0.05137511342763901
510	-0.05182504281401634
512	-0.052274905145168304
514	-0.052724696695804596
516	-0.05317441746592522
518	-0.053624071180820465
520	-0.05407365411520004
522	-0.05452316626906395
524	-0.054972611367702484
526	-0.05542198568582535
528	-0.05587128922343254
530	-0.05632052570581436
532	-0.05676969140768051
534	-0.05721878632903099
536	-0.0576678141951561
538	-0.05811677128076553
540	-0.0585656575858593
542	-0.05901447311043739
544	-0.05946321785449982
546	-0.05991189554333687
548	-0.06036050245165825
550	-0.06080903857946396
552	-0.061257503926754
554	-0.061705898493528366
556	-0.062154222279787064
558	-0.06260247528553009
560	-0.06305065751075745
562	-0.06349877268075943
564	-0.06394681334495544
566	-0.06439478695392609
568	-0.06484268605709076
570	-0.06529051810503006
572	-0.06573828309774399
574	-0.06618597358465195
576	-0.06663358956575394
578	-0.06708113849163055
580	-0.0675286203622818
582	-0.06797602772712708
584	-0.06842336058616638
586	-0.06887062638998032
588	-0.06931782513856888
590	-0.06976494938135147
592	-0.0702119991183281
594	-0.07065898180007935
596	-0.07110589742660522
598	-0.07155273854732513
600	-0.07199951261281967
602	-0.07244621217250824
604	-0.07289284467697144
606	-0.07333940267562866
608	-0.07378589361906052
610	-0.0742323100566864
612	-0.07467865943908691
614	-0.07512493431568146
616	-0.07557113468647003
618	-0.07601726800203323
620	-0.07646333426237106
622	-0.07690932601690292
624	-0.07735525071620941
626	-0.07780110090970993
628	-0.07824688404798508
630	-0.07869259268045425
632	-0.07913822680711746
634	-0.0795837938785553
636	-0.08002929389476776
638	-0.08047471940517426
640	-0.08092007786035538
642	-0.08136536180973053
644	-0.08181057870388031
646	-0.08225572109222412
648	-0.08270078897476196
650	-0.08314578980207443
652	-0.08359072357416153
654	-0.08403558284044266
656	-0.08448036760091782
658	-0.0849250853061676
660	-0.08536973595619202
662	-0.08581431210041046
664	-0.08625881373882294
666	-0.08670324832201004
668	-0.08714761584997177
670	-0.08759190887212753
672	-0.08803612738847733
674	-0.08848027884960175
676	-0.0889243632555008
678	-0.08936837315559387
680	-0.08981230854988098
682	-0.09025617688894272
684	-0.09069997817277908
686	-0.09114370495080948
688	-0.0915873646736145
690	-0.09203094989061356
692	-0.09247446805238724
694	-0.09291791170835495
696	-0.09336128830909729
698	-0.09380459040403366
700	-0.09424782544374466
702	-0.09469098597764969
704	-0.09513407945632935
706	-0.09557710587978363
708	-0.09602005779743195
710	-0.09646293520927429
712	-0.09690574556589127
714	-0.09734848886728287
716	-0.0977911576628685
718	-0.09823375940322876
720	-0.09867628663778305
722	-0.09911874681711197
724	-0.09956113249063492
726	-0.1000034511089325
728	-0.1004457026720047
730	-0.10088787972927094
732	-0.1013299822807312
734	-0.1017720177769661
736	-0.10221398621797562
738	-0.10265588015317917
740	-0.10309770703315735
742	-0.10353945940732956
744	-0.1039811447262764
746	-0.10442275553941727
748	-0.10486429929733276
750	-0.10530576854944229
752	-0.10574717074632645
754	-0.10618849843740463
756	-0.10662975907325745
758	-0.10707095265388489
760	-0.10751207172870636
762	-0.10795312374830246
764	-0.10839410126209259
766	-0.10883501172065735
768	-0.10927584767341614
770	-0.10971661657094955
772	-0.1101573184132576
774	-0.11059794574975967
776	-0.11103850603103638
778	-0.11147899180650711
780	-0.11191941052675247
782	-0.11235975474119186
784	-0.11280003190040588
786	-0.11324024200439453
788	-0.11368037760257721
790	-0.11412044614553452
792	-0.11456044763326645
794	-0.11500037461519241
796	-0.11544022709131241
798	-0.11588001251220703
800	-0.11631973087787628
802	-0.11675937473773956
804	-0.11719895154237747
806	-0.11763846129179001
808	-0.11807789653539658
810	-0.11851726472377777
812	-0.1189565658569336
814	-0.11939579248428345
816	-0.11983495205640793
818	-0.12027403712272644
820	-0.12071305513381958
822	-0.12115199863910675
824	-0.12159087508916855
826	-0.12202968448400497
828	-0.12246841937303543
830	-0.12290708720684052
832	-0.12334568798542023
834	-0.12378421425819397
836	-0.12422267347574234
838	-0.12466106563806534
840	-0.12509937584400177
842	-0.12553763389587402
844	-0.1259758025407791
846	-0.12641391158103943
848	-0.12685196101665497
850	-0.12728992104530334
852	-0.12772782146930695
854	-0.12816566228866577
856	-0.12860341370105743
858	-0.12904110550880432
860	-0.12947873771190643
862	-0.12991628050804138
864	-0.13035376369953156
866	-0.13079117238521576
868	-0.131228506565094
870	-0.13166578114032745
872	-0.13210299611091614
874	-0.13254012167453766
876	-0.1329771876335144
878	-0.13341417908668518
880	-0.13385109603405
882	-0.13428795337677002
884	-0.13472473621368408
886	-0.13516144454479218
888	-0.1355980932712555
890	-0.13603466749191284
892	-0.13647116720676422
894	-0.13690760731697083
896	-0.13734397292137146
898	-0.13778026401996613
900	-0.13821649551391602
902	-0.13865265250205994
904	-0.1390887349843979
906	-0.13952475786209106
908	-0.13996070623397827
910	-0.1403965801000595
912	-0.14083239436149597
914	-0.14126813411712646
916	-0.141703799366951
918	-0.14213940501213074
920	-0.14257493615150452
922	-0.14301039278507233
924	-0.14344578981399536
926	-0.14388111233711243
928	-0.14431636035442352
930	-0.14475154876708984
932	-0.1451866626739502
934	-0.14562170207500458
936	-0.14605668187141418
938	-0.14649160206317902
940	-0.14692643284797668
942	-0.14736120402812958
944	-0.1477959156036377
946	-0.14823053777217865
948	-0.14866510033607483
950	-0.14909960329532623
952	-0.14953401684761047
954	-0.14996837079524994
956	-0.15040266513824463
958	-0.15083687007427216
960	-0.1512710154056549
962	-0.15170510113239288
964	-0.1521391123533249
966	-0.15257304906845093
968	-0.1530069261789322
970	-0.15344072878360748
972	-0.1538744568824768
974	-0.15430812537670135
976	-0.15474171936511993
978	-0.15517523884773254
980	-0.15560869872570038
982	-0.15604208409786224
984	-0.15647539496421814
986	-0.15690864622592926
988	-0.1573418229818344
990	-0.1577749252319336
992	-0.158207967877388
994	-0.15864095091819763
996	-0.1590738445520401
998	-0.1595066785812378
